{
  "version": "industry4_numpy_v1",
  "created_at": "2026-07-19T16:27:54.753988+00:00",
  "dataset": "industry4_vocational_skill_mapping_dataset.csv",
  "rows": 15000,
  "features": [
    "Theory_Score",
    "Assignment_Score",
    "Internal_Exam_Score",
    "Attendance_Percentage",
    "LMS_Login_Count",
    "LMS_Time_Spent_Hours",
    "Lab_Task_Completion_Percentage",
    "Lab_Accuracy_Score",
    "Practical_Exam_Score",
    "Simulation_Score",
    "Troubleshooting_Score",
    "AI_Skill_Score",
    "IoT_Skill_Score",
    "Robotics_Skill_Score",
    "Data_Analytics_Score",
    "Automation_Skill_Score",
    "Problem_Solving_Score",
    "Teamwork_Score",
    "Communication_Score"
  ],
  "privacy_scope": "aggregate curriculum and skills insight only; not for individual learner decisions",
  "normalization": {
    "mean": [
      68.01204916666624,
      69.91234749999991,
      68.00471416666657,
      72.64332333333383,
      107.96741666666667,
      51.08296499999993,
      69.87178083333319,
      67.92500416666635,
      68.93092083333352,
      67.9368324999997,
      68.9493850000003,
      66.02380999999974,
      68.01674916666661,
      67.06805333333313,
      68.9856508333335,
      69.95906666666687,
      70.86462833333329,
      72.68723500000034,
      71.77676916666678
    ],
    "scale": [
      19.932221597853,
      19.814230773131477,
      19.865471059981573,
      19.716279875746935,
      33.793840982143124,
      16.702827370202186,
      19.81002078966517,
      19.926035756851306,
      19.86482332232194,
      19.917098848944086,
      19.88040535271963,
      19.965271116797595,
      19.94796288781761,
      19.896205948467248,
      19.916955762023807,
      19.76760102572442,
      19.776325312821115,
      19.577198339005925,
      19.746851007693603
    ]
  },
  "classification": {
    "classes": [
      "Advanced_Skill_Level",
      "Basic_Skill_Level",
      "Competent_Skill_Level",
      "Developing_Skill_Level",
      "Industry_Ready_Level"
    ],
    "selected": "nearest_centroid",
    "metrics": {
      "majority_baseline": {
        "accuracy": 0.1963,
        "macro_f1": 0.0656
      },
      "nearest_centroid": {
        "accuracy": 0.9963,
        "macro_f1": 0.9963
      },
      "softmax_regression": {
        "accuracy": 0.8883,
        "macro_f1": 0.8854
      }
    },
    "majority_label": "Advanced_Skill_Level",
    "centroids": [
      [
        1.2979779526071222,
        1.29174490447517,
        1.3002018596828764,
        1.2520699905268675,
        1.1835685761079513,
        1.1503088382767483,
        1.291803482327797,
        1.2952872390131833,
        1.292948902982399,
        1.2953943044036522,
        1.2934247687280847,
        1.3012864484585598,
        1.2971782176461444,
        1.2955935797091485,
        1.2966651533402132,
        1.2937019805837184,
        1.2861099971840062,
        1.2738529662723654,
        1.2776491656551185
      ],
      [
        -1.4337350265023205,
        -1.435035808275376,
        -1.4309397520437843,
        -1.4279207760333577,
        -1.333228175913168,
        -1.2794141679846176,
        -1.4362771797957101,
        -1.4340103686387506,
        -1.4316180921187447,
        -1.432988224743979,
        -1.4331388694457,
        -1.431266857252938,
        -1.4344044397162172,
        -1.429825337121358,
        -1.4322639289797505,
        -1.4342248546393463,
        -1.4449340805711233,
        -1.4476523484497341,
        -1.4427127495620562
      ],
      [
        0.07505380889718083,
        0.07784054602684111,
        0.07498776830112223,
        0.08974227811473769,
        0.085954122368456,
        0.061680445431129986,
        0.08196357961807746,
        0.08054056738899314,
        0.08089597275338348,
        0.07931366531973355,
        0.07928389687977051,
        0.07650794944967632,
        0.07549787669877703,
        0.07671390633628532,
        0.0802965977674486,
        0.07278834016436146,
        0.08828909633722752,
        0.0875105118709987,
        0.08417808357571059
      ],
      [
        -0.672240378305668,
        -0.6773956453196951,
        -0.6769278241463963,
        -0.6793313816346456,
        -0.6329749019205122,
        -0.5914551518612463,
        -0.6769597041302716,
        -0.675895248041424,
        -0.6794752238244346,
        -0.6765982383267667,
        -0.677980445554377,
        -0.6758029983191897,
        -0.6724447387973413,
        -0.6785813560203613,
        -0.6801850298084718,
        -0.6756067537266452,
        -0.6702388077063703,
        -0.6715127725016278,
        -0.67557331090496
      ],
      [
        0.7265229180130074,
        0.7365139956008094,
        0.726278278961517,
        0.7594304758347369,
        0.6909133282051223,
        0.6531762263438763,
        0.7331127329136227,
        0.7276864306807194,
        0.730908277863968,
        0.7284984700423494,
        0.7320610628212336,
        0.7228482771303535,
        0.7277592893616833,
        0.729747839514416,
        0.7291220729292837,
        0.73700091012663,
        0.7343782844455767,
        0.7515341153160938,
        0.7502087571891518
      ]
    ],
    "softmax_weights": [
      [
        0.3590409536179917,
        -0.3470985142052881,
        0.004544370366581322,
        -0.21568652456938986,
        0.1991997147901046
      ],
      [
        0.3356673082917808,
        -0.34257367372333847,
        0.007578273981658273,
        -0.23049147444530008,
        0.22981956589519942
      ],
      [
        0.363080820232466,
        -0.34276054829848335,
        0.00986055377433241,
        -0.23053613867861833,
        0.20035531297030323
      ],
      [
        0.22597138380682424,
        -0.3319992965958048,
        0.03585254473795736,
        -0.2492522328932526,
        0.31942760094427597
      ],
      [
        0.2424815537635523,
        -0.2871601331222409,
        0.04591394302008123,
        -0.21633943285252458,
        0.21510406919113204
      ],
      [
        0.25714918596005226,
        -0.2796341896443624,
        -0.0038264026347267764,
        -0.16787300447768974,
        0.19418441079672702
      ],
      [
        0.33899233785045446,
        -0.3476412253023108,
        0.022321739782114814,
        -0.23176764993748056,
        0.21809479760722175
      ],
      [
        0.3507669735786146,
        -0.3465592715394538,
        0.022639459090920258,
        -0.23000343726783393,
        0.20315627613775308
      ],
      [
        0.3382695234798967,
        -0.335446410277075,
        0.023519817948942538,
        -0.23798534369110372,
        0.21164241253933988
      ],
      [
        0.3515922863394448,
        -0.3445011698890209,
        0.017925405209728677,
        -0.23123076756532843,
        0.20621424590517606
      ],
      [
        0.3418113689925153,
        -0.34143600296069665,
        0.017263767148377237,
        -0.23429168569297223,
        0.21665255251277607
      ],
      [
        0.37424868413876244,
        -0.3442325234741459,
        0.012253048743092826,
        -0.2308553275679817,
        0.18858611816027215
      ],
      [
        0.3566239770154267,
        -0.35116529512786593,
        0.007181532481840007,
        -0.2147175477170652,
        0.2020773333476646
      ],
      [
        0.34776348230709325,
        -0.33456331195088596,
        0.01152754719158421,
        -0.23412327250086085,
        0.20939555495306955
      ],
      [
        0.35392208916114337,
        -0.33559201118106063,
        0.019426491906669646,
        -0.23939219772789738,
        0.20163562784114517
      ],
      [
        0.3390064906253327,
        -0.3445899240142369,
        -0.005877545495306489,
        -0.22289325079407082,
        0.2343542296782814
      ],
      [
        0.3220713938837814,
        -0.3742966555549595,
        0.04094567998524828,
        -0.20956073813552367,
        0.22084031982145375
      ],
      [
        0.2746786285818508,
        -0.36950758104078685,
        0.027520255564582725,
        -0.21395773255737444,
        0.28126642945172775
      ],
      [
        0.2847151222304401,
        -0.35720270723393976,
        0.02031299564979109,
        -0.22411294495892212,
        0.27628753431263064
      ]
    ],
    "softmax_bias": [
      -1.248320503916491,
      -1.2522082004361255,
      1.660148323043154,
      0.5720426259920743,
      0.26833775531738624
    ]
  },
  "regression": {
    "selected": "linear_regression",
    "metrics": {
      "mean_baseline": {
        "mae": 16.9462
      },
      "linear_regression": {
        "mae": 0.6834
      },
      "ridge_regression": {
        "mae": 0.6834
      }
    },
    "mean": 17.691714166666667,
    "linear_coefficients": [
      17.691714166666706,
      -0.3347606385129453,
      -0.35077920716493793,
      -0.3898674160255705,
      -0.2583520581076322,
      -0.0722487058617881,
      -0.041711316853440344,
      -0.37513736087798577,
      -0.3631971594335901,
      -0.36086992398085255,
      -0.31353966250476617,
      -0.23070581990707895,
      -3.1632010910153503,
      -3.20369630531066,
      -3.1906290901639895,
      -3.2204957843749296,
      -3.153232947696519,
      -0.3720063587450967,
      -0.26197488155754467,
      -0.2534667407952633
    ],
    "ridge_coefficients": [
      17.690977042623274,
      -0.335688353915918,
      -0.35167260030707864,
      -0.3906787832530112,
      -0.25899502652564116,
      -0.07246510644725876,
      -0.0418886907558369,
      -0.3759125809957905,
      -0.36399869297864246,
      -0.3616327519540885,
      -0.31441566613345845,
      -0.23165014982647475,
      -3.161138326084242,
      -3.201534549407084,
      -3.188492913673333,
      -3.218293716822268,
      -3.151140848066255,
      -0.37289033440195263,
      -0.2630106519130571,
      -0.25436033930114377
    ]
  }
}