{
  "version": "industry4_neural_fusion_v1",
  "created_at": "2026-07-19T16:28:11.599972+00:00",
  "dataset": "industry4_vocational_skill_mapping_dataset.csv",
  "rows": 15000,
  "features": [
    "Theory_Score",
    "Assignment_Score",
    "Internal_Exam_Score",
    "Attendance_Percentage",
    "LMS_Login_Count",
    "LMS_Time_Spent_Hours",
    "Lab_Task_Completion_Percentage",
    "Lab_Accuracy_Score",
    "Practical_Exam_Score",
    "Simulation_Score",
    "Troubleshooting_Score",
    "AI_Skill_Score",
    "IoT_Skill_Score",
    "Robotics_Skill_Score",
    "Data_Analytics_Score",
    "Automation_Skill_Score",
    "Problem_Solving_Score",
    "Teamwork_Score",
    "Communication_Score"
  ],
  "privacy_scope": "aggregate curriculum and skills insight only; not for individual learner decisions",
  "normalization": {
    "mean": [
      67.98036285714278,
      69.93056190476162,
      67.98860952380915,
      72.66672857142902,
      108.08038095238095,
      51.047605714285744,
      69.8860647619047,
      67.96405619047614,
      68.90923428571433,
      67.95688476190506,
      68.92022476190486,
      66.02209333333339,
      67.97970761904787,
      67.09844476190496,
      68.99454190476197,
      69.92619238095274,
      70.85603428571468,
      72.70966571428568,
      71.8163723809521
    ],
    "scale": [
      19.933645528334402,
      19.788545863188155,
      19.854646059847397,
      19.717375090263168,
      33.66923162102316,
      16.74441073998426,
      19.804595602791036,
      19.88413672431204,
      19.82306380731596,
      19.897329470010515,
      19.90252135946011,
      19.909084509311533,
      19.919132900907968,
      19.845220861415932,
      19.90225702227319,
      19.757481184101596,
      19.757890949881176,
      19.552443566023612,
      19.681194923857102
    ]
  },
  "classification": {
    "classes": [
      "Advanced_Skill_Level",
      "Basic_Skill_Level",
      "Competent_Skill_Level",
      "Developing_Skill_Level",
      "Industry_Ready_Level"
    ],
    "selected": "nearest_centroid",
    "metrics": {
      "nearest_centroid": {
        "accuracy": 0.9969,
        "macro_f1": 0.9969
      },
      "softmax_regression": {
        "accuracy": 0.9151,
        "macro_f1": 0.914
      },
      "neural_mlp": {
        "accuracy": 0.916,
        "macro_f1": 0.915
      },
      "weighted_fusion": {
        "accuracy": 0.9951,
        "macro_f1": 0.9951
      }
    },
    "validation_metrics": {
      "nearest_centroid": 0.9986666661179691,
      "softmax_regression": 0.9239362231346308,
      "neural_mlp": 0.9263525604499663,
      "weighted_fusion": 0.9964441634894609
    },
    "fusion_weights": {
      "nearest_centroid": 0.3505378317594369,
      "softmax_regression": 0.3243070098660513,
      "neural_mlp": 0.3251551583745118
    },
    "majority_label": "Advanced_Skill_Level",
    "centroids": [
      [
        1.298420849091105,
        1.2893500149612158,
        1.2994036721800273,
        1.2473052625767584,
        1.1773954465669338,
        1.1457153026733293,
        1.2894466054045381,
        1.2906833782995282,
        1.2914631380557784,
        1.2938530288098018,
        1.2919697824242717,
        1.299160548078435,
        1.2949288091974571,
        1.2922985667573197,
        1.294392125128046,
        1.294336620659356,
        1.2785731349317075,
        1.2730264152819335,
        1.2736227750508047
      ],
      [
        -1.4286195743772527,
        -1.433108743376296,
        -1.4275612732701237,
        -1.4265614713054904,
        -1.3280148058775114,
        -1.284898178337634,
        -1.4379662944679086,
        -1.4330149761767712,
        -1.4309714846980488,
        -1.4289076687160025,
        -1.4288517931832945,
        -1.4299962978981642,
        -1.4319822984355792,
        -1.427698276421513,
        -1.4315547449872266,
        -1.4308512267861735,
        -1.4447014312276796,
        -1.446608080551801,
        -1.44033942359965
      ],
      [
        0.07559504154736274,
        0.07809375764375742,
        0.07769490109545664,
        0.09622791553518752,
        0.08416897640560565,
        0.06034758568671387,
        0.08559086057346967,
        0.08286270388187504,
        0.07932722139794393,
        0.07720160218488892,
        0.07668968507412255,
        0.07590825227633802,
        0.07046333685360062,
        0.07440620738660138,
        0.07886380008513605,
        0.07314013099337843,
        0.08986856632810872,
        0.08669412081605497,
        0.08624568283609657
      ],
      [
        -0.6758697776720339,
        -0.6770518420706518,
        -0.6783790630100679,
        -0.6788919217384741,
        -0.630882628163993,
        -0.5854676302690675,
        -0.6719502444810023,
        -0.6760758562612349,
        -0.6771456260675025,
        -0.6780373417089319,
        -0.676909496589094,
        -0.6726007293626117,
        -0.6693776265810448,
        -0.6764364362550558,
        -0.6777060503693315,
        -0.6755790313362935,
        -0.667806046763245,
        -0.6695401841954527,
        -0.676689023352157
      ],
      [
        0.7304734614108377,
        0.7427168128420568,
        0.7288417630048072,
        0.7619202149319017,
        0.6973330110689704,
        0.66430292024665,
        0.7348790729709138,
        0.735544750256613,
        0.7373267513118198,
        0.7358903794301654,
        0.7371018222739701,
        0.7275282269059887,
        0.7359677789654955,
        0.7374299385325999,
        0.7360048701433615,
        0.7389535064696332,
        0.7440657767310173,
        0.7564277286492819,
        0.7571599890649933
      ]
    ],
    "softmax_weights": [
      [
        0.39636562032070266,
        -0.35947971599285133,
        0.008495084855459552,
        -0.24767828764862374,
        0.2022972984653133
      ],
      [
        0.35845304826486213,
        -0.3664924258212278,
        0.007466907201113511,
        -0.2462287301513543,
        0.24680120050660692
      ],
      [
        0.3995092933350681,
        -0.3599636640887717,
        0.020113762059508183,
        -0.2555726650145319,
        0.19591327370872724
      ],
      [
        0.23993912246300003,
        -0.35658440807159114,
        0.05805575376667253,
        -0.27763855469874577,
        0.33622808654066566
      ],
      [
        0.2532522379023413,
        -0.30200149466957543,
        0.041672451970030853,
        -0.23004260434125512,
        0.23711940913845853
      ],
      [
        0.26353118674135556,
        -0.3127901347908901,
        -0.008326045326419475,
        -0.1657466584895245,
        0.22333165186547937
      ],
      [
        0.37103497585894646,
        -0.38876795978413836,
        0.03529584586531796,
        -0.2352468867694512,
        0.21768402482932644
      ],
      [
        0.3673870898925335,
        -0.3714836842260859,
        0.03105644682360854,
        -0.2486953371358878,
        0.2217354846458327
      ],
      [
        0.3658412982967058,
        -0.363210191112323,
        0.017555501658594628,
        -0.247507541075124,
        0.22732093223214653
      ],
      [
        0.3780381691105031,
        -0.3599299374449086,
        0.011147981957009872,
        -0.25469622695322497,
        0.22544001333061803
      ],
      [
        0.36911653525871146,
        -0.36293837419647895,
        0.012731344732071995,
        -0.24954859415885236,
        0.23063908836454827
      ],
      [
        0.40580788686597985,
        -0.37389423076276485,
        0.010886614969938518,
        -0.23758129033253245,
        0.1947810192593795
      ],
      [
        0.3830213456900381,
        -0.3799770189339486,
        -0.011305916917267324,
        -0.2187906748157268,
        0.227052264976904
      ],
      [
        0.3702530927269029,
        -0.35814837623375023,
        0.0018209005945016713,
        -0.24380471476070356,
        0.2298790976730504
      ],
      [
        0.3794435719410831,
        -0.36555542545843855,
        0.015315193056070566,
        -0.24714017661426355,
        0.21793683707554745
      ],
      [
        0.375368570656955,
        -0.36389554830786264,
        -0.003773964974716794,
        -0.24210099667878085,
        0.23440193930440525
      ],
      [
        0.32698291166051124,
        -0.4060935914167548,
        0.0450890182237822,
        -0.21880477386664965,
        0.25282643539911115
      ],
      [
        0.29747927753259024,
        -0.4033968007195862,
        0.027413017154876897,
        -0.22085519683443186,
        0.29935970286655006
      ],
      [
        0.2975358253972345,
        -0.37981570994683356,
        0.0270349880437591,
        -0.24908859108700007,
        0.30433348759283907
      ]
    ],
    "softmax_bias": [
      -1.3897694874903903,
      -1.3951822994717902,
      1.8345805709525345,
      0.6462986938304546,
      0.3040725221791823
    ],
    "neural": {
      "w1": [
        [
          0.0743608493845262,
          0.049478504575439085,
          -0.07098357557204345,
          -0.14139074591521902,
          -0.2709413446906813,
          0.021021778009976143,
          -0.1505084734160799,
          -0.05935530948957818,
          0.004224789750186437,
          -0.001427524886791888,
          -0.2733364921916704,
          0.15181082118852784,
          -0.23028713245906696,
          0.14648746487047695,
          0.08193232672730294,
          -0.02123767848254772,
          0.179902469553982,
          0.03015695541751578,
          0.07417473756523175,
          0.03665315169381472,
          0.10541146489934133,
          0.10854047056748511,
          -0.11283140832399495,
          -0.08732353191337744,
          0.011546760200431286,
          0.009073839104095023,
          -0.3036363213969923,
          0.2967886518436996,
          -0.2905395210746201,
          -0.29220795052071574,
          -0.12123695250151566,
          0.06708798088542053,
          0.2084814797978535,
          0.02873313056824336,
          -0.09618920100772059,
          -0.025794006780532647,
          -0.02562869654502209,
          -0.009319755522206338,
          -0.06103144730411113,
          0.051446256749933084,
          0.09316287331619331,
          -0.24732809037977654,
          0.06460806157027499,
          0.02891478790497484,
          0.1450668126339997,
          -0.1251825309575943,
          -0.142802463003545,
          -0.08271828413692414
        ],
        [
          0.01377197350174795,
          -0.07075891614339291,
          -0.09653502670608045,
          0.12159694639547607,
          -0.15274874356909546,
          -0.08049903424442834,
          -0.07436184487716976,
          0.053367777595960605,
          0.13401480791933895,
          -0.08642535416321295,
          -0.19661012301721897,
          0.036649072951135286,
          0.06422878752901164,
          -0.21839654041488807,
          -0.032200309660906395,
          0.059269808291382405,
          0.06313500146619126,
          0.03319934632789695,
          -0.03084544819806556,
          -0.07050823989220238,
          -0.11910453291629124,
          0.12314120112343599,
          -0.136255321458837,
          0.11475913921810739,
          -0.16744014334790241,
          0.34756587711224024,
          -0.24640436809746963,
          0.24704533480514024,
          -0.15134200437435616,
          -0.07998797095425159,
          0.016342718851531674,
          -0.06630541814125171,
          0.2550148125539803,
          0.062351315769983186,
          -0.1980073281385481,
          0.025037274758120134,
          0.09191235941678468,
          -0.1430809910657084,
          0.12199135535307482,
          0.01122270775665926,
          0.1353290560871446,
          0.0944352518611743,
          0.0717195397351104,
          -0.02824694703772892,
          0.17768332131332384,
          -0.0014723865240527554,
          -0.161218418488308,
          -0.04252662846684537
        ],
        [
          -0.10077859099618847,
          -0.013625070951010619,
          0.23159348791095968,
          -0.04513231633169681,
          -0.021407576738522834,
          0.2035394965336197,
          -0.014478165922367048,
          0.07983022186616337,
          0.16691727294650283,
          0.0236627110781014,
          -0.008648078960639093,
          0.12571932223525856,
          0.03814463515161132,
          -0.13339079470085607,
          -0.10794806647525833,
          0.016268695086452924,
          0.184057205298546,
          0.0029176314469060677,
          0.12438412153465223,
          0.06627487743294055,
          -0.04925427910316611,
          -0.30398170843511285,
          0.00809277915278218,
          -0.054159662676242955,
          -0.19916214883236105,
          0.08598308528686871,
          -0.06316138326511518,
          0.11443307915068301,
          -0.12357502768129043,
          -0.04942713611139394,
          -0.029653480839918624,
          0.12641016857852816,
          0.02685606887244642,
          -0.09926266381511031,
          -0.03484283297130657,
          -0.039155883366308014,
          -0.006575699557038641,
          -0.16536421279201954,
          0.1799302736621661,
          -0.07362173381540235,
          0.22090696085278919,
          -0.05397138964569601,
          0.07911723708922051,
          0.007681700664290067,
          0.09920710981155254,
          0.2501932398161003,
          -0.04864893789889521,
          0.23593540829736823
        ],
        [
          0.021311750410999353,
          -0.04162282330085491,
          0.11915488696637631,
          0.08838983012141481,
          0.029453353600839595,
          -0.12948213319061316,
          -0.01465627294745495,
          -0.01618935225510025,
          -0.006001148493524507,
          -0.00844001501505549,
          -0.02391681360919788,
          0.22418845820564168,
          0.03504226021789365,
          -0.25866611814518864,
          0.1655886639049341,
          0.02976988507191031,
          0.05274406703501464,
          -0.18019861581132754,
          0.04092960491581706,
          -0.05642566536438992,
          0.0932767620366451,
          0.049877567707691514,
          0.07376121569794275,
          -0.06478941601784324,
          -0.22226472819285356,
          0.13654835720974892,
          -0.014793785092280996,
          0.03353295260622821,
          -0.11734835439656029,
          -0.16634671021854924,
          -0.173738983476168,
          -0.12325678518416623,
          0.004089948514794746,
          0.22761270246352028,
          -0.009201373490700725,
          0.1271667558988105,
          -0.0997606319102156,
          0.11718657452237352,
          0.01857722554448576,
          0.1565211108932064,
          0.17310569480335683,
          0.019597100309583417,
          0.08476316239206073,
          0.15973451977827324,
          -0.015749978395468378,
          -0.2766236122511526,
          0.09877192223962956,
          0.23868188653233277
        ],
        [
          -0.2451489553946792,
          0.037031050881300015,
          -0.13483034927439186,
          -0.034848513700221864,
          -0.15753750923242982,
          0.11904961571963364,
          -0.1067895556104779,
          0.011781658063948255,
          -0.09598561647172335,
          0.06877657044955349,
          -0.07387242208053582,
          0.006450955383970612,
          -0.01427068572271139,
          -0.2008225686589518,
          0.014961699747225037,
          -0.15015220085298947,
          0.01046379555729106,
          -0.00230781315449599,
          -0.04701113994472103,
          -0.00303402679884701,
          -0.10019950235167148,
          0.052983083575035665,
          -0.010298857604378351,
          -0.07100607069867385,
          -0.04164745344934429,
          -0.04402732484949385,
          -0.06157229863204809,
          0.037379360364504545,
          -0.23905935030030454,
          0.12093367913013733,
          -0.03368400303562287,
          -0.0762233542677717,
          0.04068349574918293,
          -0.1798768831588117,
          -0.08376389419277842,
          -0.0023728301550945724,
          -0.01786809397899671,
          -0.010057657235154126,
          0.01204409268558988,
          -0.03588467756610436,
          0.040232295202615724,
          0.030344791282112885,
          -0.05061429044415489,
          0.04358904343858397,
          0.10795274322385763,
          -0.09656975680138212,
          -0.06460745050046801,
          0.02347276366593584
        ],
        [
          0.08713412592403912,
          0.12657683708372236,
          -0.09531044371455341,
          -0.06318733593940692,
          -0.11246889534599282,
          0.06439373126786836,
          -0.06697070316870093,
          0.05795117399596917,
          0.14845120834148234,
          0.02756430768042663,
          0.01859544449766784,
          0.07410944514991268,
          -0.09564928770080733,
          -0.06635939536280765,
          -0.009730218990743705,
          -0.03939167525678094,
          0.17542531112907447,
          0.07167741171307088,
          -0.31486998055736326,
          -0.07928060383229016,
          -0.03197137151271575,
          -0.006227958877501752,
          -0.10209650793529211,
          -0.05377943335969079,
          -0.06790304125638887,
          -0.024494297442425105,
          0.02191586218724031,
          0.04472782154980588,
          -0.10818941819336501,
          -0.09032203826468985,
          0.01784163272499136,
          -0.12292510069093299,
          -0.05745332182435669,
          0.10105786526438158,
          0.05579053241894529,
          -0.2907964189761651,
          0.287650291558279,
          -0.0825191488137292,
          0.1349384265491464,
          -0.13255383492349718,
          0.10646046896688115,
          0.017047498224445973,
          0.047836302650124424,
          -0.01824101458176202,
          0.03360088896148378,
          0.05748426962033234,
          -0.08543955395633435,
          -0.013226731206849484
        ],
        [
          -0.0910521405621232,
          -0.1579931710161958,
          -0.0038682249464865874,
          -0.008145762617094703,
          -0.1241528971098604,
          -0.13191086886306314,
          -0.10580409579407717,
          0.01622309608387312,
          0.023310910540350626,
          0.010820342654209433,
          -0.15884286854143817,
          0.16446329556731662,
          0.08001008485526433,
          0.025425373014896748,
          0.07327477889351172,
          0.17176101140436487,
          0.11709479650418339,
          0.14831456382030317,
          0.033204109710809664,
          0.034954625959938784,
          0.05508832866399176,
          -0.08881748617900448,
          -0.04088238831946311,
          0.001704205655333498,
          -0.09146859859726766,
          -0.23314546876740994,
          -0.1205459054693047,
          -0.002345730343504323,
          0.0362248153345143,
          -0.27889294010174565,
          -0.0611929928805751,
          0.18210990324934767,
          -0.245042635962024,
          0.023917537475313378,
          -0.12876080524443112,
          -0.23547214947258616,
          0.01521437457576695,
          -0.1166928242327296,
          -0.23028360955854377,
          -0.06282435588381889,
          -0.09911822293533826,
          0.13450031399000642,
          0.07880899334737784,
          -0.10802335220757779,
          0.10705576659982328,
          0.1704049034761162,
          -0.1386455731082483,
          -0.09227378417650757
        ],
        [
          -0.0614462200150769,
          0.020179941123049064,
          0.0017533932756654438,
          -0.16994977520482887,
          -0.06420984669732953,
          -0.11126713137082297,
          -0.15631574035517193,
          0.12894194886642144,
          -0.058270502578588845,
          0.06377750646744518,
          -0.0676207249718466,
          0.0649068172562545,
          0.0072181982946845835,
          0.006761417211814699,
          0.09805140843905893,
          -0.05586394402360963,
          0.209870674541252,
          0.0886537888626649,
          0.10134747855329815,
          0.12418399014798574,
          -0.06763746015477728,
          -0.014404833198216496,
          -0.008445478053365221,
          0.0073096020570653664,
          0.15460309226451255,
          0.23165476913827945,
          0.3195724551640008,
          0.2716389321614654,
          0.12594289873435002,
          -0.0799977960307267,
          -0.06881581315647026,
          0.01143514945605856,
          -0.01711787723349842,
          -0.05574912906315995,
          -0.08478873806299676,
          0.00016035693084855124,
          0.021971408934857384,
          0.08005331221484135,
          0.1315941925909395,
          0.05104360501780777,
          0.1853639303594239,
          0.007211775950611858,
          0.084230853646206,
          0.17538085999325562,
          0.18645060759709606,
          -0.20210586436037611,
          0.0240774189662789,
          0.18041630241082526
        ],
        [
          0.009185151412963903,
          0.15365093596525933,
          -0.17431754366595845,
          0.04795919811056713,
          -0.28245648189481964,
          0.10091039513400593,
          -0.19255750244460756,
          0.19006022495539374,
          -0.04861816973598854,
          0.02176348918499569,
          0.007924450545652127,
          0.0525091371824093,
          -0.1723153938519978,
          0.02727621833096047,
          -0.029806842495669388,
          0.2980908066414484,
          0.01198540948999654,
          0.052909138124836774,
          -0.03472989560432165,
          0.2064946251782976,
          0.15458031375773987,
          0.06338375613577805,
          0.10346019001858743,
          -0.11334381207229675,
          -0.1233199967475246,
          0.17742634027776874,
          -0.14611973583641097,
          0.04473530725607247,
          -0.21905618523234202,
          -0.10520827871191975,
          0.07347030768026276,
          0.0006889796440112722,
          -0.15127108527675662,
          0.14233927839443553,
          -0.03252624295549511,
          -0.3193444897664327,
          -0.10469937968569468,
          -0.05445002638519683,
          0.007308073986427596,
          0.022871026975457558,
          0.16511814886415574,
          0.010141887448862354,
          0.06584379882361284,
          0.16406083282310036,
          0.2572478625161298,
          -0.06959806776718858,
          0.1856565991809726,
          -0.1695866565467402
        ],
        [
          0.1262823584348635,
          0.07116794340766137,
          -0.10437701518551734,
          -0.057594443506787885,
          -0.053859426042851606,
          0.1662777656692047,
          0.03015271799554125,
          0.06824783258263017,
          -0.01679550889388784,
          0.016686256567202743,
          -0.15785319765798508,
          0.007981819283726222,
          -0.10159640020919455,
          -0.09533064917538368,
          0.06873626282151378,
          -0.007219849193685717,
          -0.15378259088622628,
          0.14241569622329334,
          -0.006198392783160789,
          0.06401295887833514,
          -0.09820726186740263,
          -0.0421853769115538,
          -0.048964797467751155,
          0.13214017567908673,
          -0.16149575779357891,
          0.1267064960899292,
          -0.0700809122523167,
          0.15092254107420244,
          -0.1253670083943798,
          -0.251535095056099,
          0.12102197392142264,
          -0.040365071246272116,
          0.06068106363663479,
          0.12638937638808964,
          -0.24803686656802904,
          -0.10385957277479711,
          -0.012680320674717131,
          0.039073345899717615,
          0.1273065187339259,
          0.0844762767160176,
          0.02139530347140457,
          0.16083395113624405,
          0.07892404690469747,
          0.004641548283598793,
          0.029321072467249507,
          -0.1631343203107207,
          -6.314956922866724e-06,
          0.0438514446985362
        ],
        [
          -0.016993804004852724,
          0.25049227029360244,
          0.017955217037765255,
          0.03587606916059301,
          -0.20990597333482905,
          -0.011274104742255516,
          -0.0621482528878632,
          0.08407553830724146,
          0.00012146799304356915,
          0.04115095723440629,
          -0.1364108439574278,
          0.17352142105328033,
          0.10418834884749144,
          -0.18216416168992183,
          -0.14516179302061627,
          -0.04739982051608527,
          0.0519931363024007,
          -0.07278865256229003,
          0.01240103390563636,
          0.09633596303024737,
          0.08724032227051855,
          0.11113371703313292,
          -0.17655768370842842,
          -0.24435647818833856,
          0.024063448554974543,
          -0.05432136736605046,
          -0.14361591132433696,
          -0.045185371184061164,
          -0.12931545934897848,
          -0.014755537918270176,
          -0.14585353843205842,
          -0.15129596076856563,
          0.11482934024109813,
          0.11305634627885842,
          -0.24562122329309882,
          -0.2529617800162471,
          0.04207216522415722,
          0.06064711031965254,
          0.27696577317273335,
          0.06223946330190984,
          0.10504559674943661,
          -0.024309667991539264,
          0.06838220344956937,
          -0.0463283729583181,
          0.1970534181675694,
          -0.010166988168732967,
          0.10750128357442268,
          0.03513825616568207
        ],
        [
          -0.1652521440580609,
          -0.004014591934690818,
          0.08720295495298877,
          0.021927101517778727,
          -0.2741367898907966,
          0.12052645156014552,
          -0.13085854545746287,
          0.16908501300025802,
          -0.022911178864885137,
          -0.09901480704789575,
          0.04639628265609113,
          -0.0900318384940014,
          0.10795997223955166,
          -0.12697752976443485,
          0.07141111377762342,
          -0.13666764369991447,
          0.025671928894379522,
          -0.04111413114414129,
          0.1617105923772533,
          -0.06875658964764308,
          -0.04626755751495899,
          -0.11440853959885432,
          -0.027399871096214914,
          -0.016909128742893305,
          0.08492590950972681,
          0.09939742599089192,
          -0.23361627150561642,
          0.27247006934975804,
          -0.05079741047292232,
          0.04361381019196194,
          -0.020343130267946943,
          0.08443128238345954,
          -0.004218515071633131,
          0.016813193606485165,
          -0.07651677312139657,
          -0.14474491361847186,
          0.060212755159520855,
          0.016219628371569338,
          0.13161025050029335,
          0.13279727109155817,
          0.15804633400331458,
          0.06195444895191177,
          0.18911456392076212,
          0.02893809739193412,
          0.18879679732563917,
          -0.04887540309184318,
          -0.19451255518266372,
          -0.057684410698615726
        ],
        [
          -0.1528456863290486,
          -0.03448055442389003,
          -0.02950019459152261,
          0.007601819458386012,
          -0.013150582010953243,
          -0.09619644604348312,
          -0.11488525735747897,
          0.10855436482777991,
          0.09176540240903373,
          0.13622627105100552,
          -0.05346220683200722,
          0.2968019992706155,
          -0.07914866296294847,
          -0.22334877499061112,
          -0.016285467536321496,
          -0.11598320678213445,
          0.10429087278710542,
          0.01176602512618677,
          -0.16952260016991372,
          0.03701675724922714,
          0.09057530712153639,
          -0.07979864005389754,
          -0.06319193809224787,
          -0.10945124799732088,
          -0.09381442288702806,
          -0.11751285000167107,
          -0.08905126314664821,
          -0.03950355883170587,
          -0.046626433149888874,
          0.04294195962807073,
          0.10003689943280063,
          0.029980898659306737,
          0.1261277500127214,
          0.11545077360779618,
          -0.1276496832475797,
          -0.010560859831633981,
          0.07649767494801422,
          -0.05273632823235384,
          0.1216631188660588,
          -0.093372663220679,
          0.0848513583784913,
          0.07507398207568718,
          0.09167780317015853,
          -0.022085329806295333,
          0.11091894309149117,
          -0.1342852806511013,
          -0.06360442803279656,
          0.07129693582717155
        ],
        [
          0.05567600784454905,
          0.10176290484919819,
          -0.02310358711868311,
          0.04206701055539127,
          -0.13966825796406973,
          0.03848912110805989,
          -0.1366320624295222,
          -0.09690257439164243,
          0.056729609986595084,
          -0.03174069899454446,
          -0.05081997814429058,
          -0.03801998275103045,
          0.1558665632990627,
          -0.009427777592149732,
          -0.06701553198580858,
          0.09645321807484801,
          0.03983456349973622,
          -0.0565005213847835,
          -0.08891039768646433,
          0.11970731958317407,
          -0.05209411291806673,
          0.031942472928741875,
          -0.08425504498637124,
          0.02886111647444336,
          0.021443387309359397,
          0.08493843388642165,
          -0.016904013183179124,
          0.18819102596527748,
          0.026938907345528947,
          -0.1305355607499521,
          0.20726371413621855,
          -0.04255131206504997,
          -0.05049134061766489,
          0.057030883367974086,
          0.03231664054437421,
          0.005547441968270702,
          -0.10231586753198263,
          -0.0683716349546272,
          0.16909623350989894,
          0.03010627635585822,
          0.07593750606235174,
          -0.14900338966997656,
          0.08359146629051607,
          0.044323629646902195,
          -0.025636729114436343,
          -0.23947311933422624,
          0.029123286605239586,
          0.09956340863314592
        ],
        [
          -0.18886582482906963,
          -0.01743835229246679,
          0.12803422644777468,
          0.16894439291395455,
          -0.0585331282542965,
          -0.22949533604287498,
          -0.04863634737342047,
          0.1334324266431327,
          0.299120782273057,
          0.11265469188988649,
          0.056090466102822416,
          0.02682164014504091,
          -0.16311939072570508,
          -0.14064267502062688,
          -0.06894044329601115,
          -0.03259782930258702,
          0.11696846685116777,
          0.037206557681689005,
          -0.21969508477904315,
          -0.014107027802685322,
          0.11602759814604956,
          0.08316841370165963,
          0.1483087024569386,
          -0.13816970920267324,
          0.01684747207617768,
          -0.0008718702527659417,
          -0.17417638734340948,
          0.004571438355640016,
          -0.24636053992339316,
          -0.24620096838672167,
          0.04101778510736175,
          -0.012420434101865963,
          -0.03514682646058617,
          0.1910395036750072,
          -0.09517160507760587,
          0.015657196787759224,
          -0.10320313698970089,
          -0.1473953093903404,
          0.014938803144797713,
          -0.05683175966788916,
          0.015301293907384685,
          0.021563786307966546,
          0.26276717884331163,
          -0.08305662240836198,
          -0.050620800871597905,
          0.015847886809062916,
          0.14114437836149368,
          0.20105283084518474
        ],
        [
          -0.16331258862202694,
          0.07363345336427782,
          -0.20645721488880492,
          -0.010612536360952135,
          -0.1866411420685884,
          -0.04264250535125729,
          -0.22566065587280704,
          0.1699269357090507,
          0.12501036359540524,
          0.05497914527373519,
          -0.12957497685034577,
          0.23470999814879112,
          0.10922980941786027,
          -0.0850960541547156,
          0.14057508529431442,
          0.08357994221345534,
          0.1040795788819131,
          0.1116354474326668,
          0.08422081412576311,
          0.020597625509041793,
          -0.15904347658248288,
          -0.12424692903755406,
          0.03316108493911177,
          -0.06768817211643863,
          0.010208573741655643,
          -0.1651102981081762,
          -0.10283072880301727,
          0.03432662945988119,
          0.1100302497690351,
          -0.10066902362087839,
          -0.044138585284409455,
          0.019795979195705714,
          0.1425705774508219,
          0.334209538290225,
          -0.20170085608899782,
          0.14500571358727787,
          -0.1976834235662872,
          0.1280306355585848,
          0.2235472347448821,
          0.12318792707129489,
          -0.19536222014343213,
          -0.084991862404863,
          0.2743288234574876,
          0.06683459393510334,
          0.2005749728862563,
          -0.030836190621921084,
          0.04057914442741642,
          0.05446367374914393
        ],
        [
          -0.11421016512307994,
          0.128727644811144,
          0.23675829119435662,
          -0.1195781026301112,
          -0.17385545104948394,
          -0.08422100960025188,
          -0.15436559307752945,
          0.049203527144158044,
          0.07126169251297348,
          0.061915176829489015,
          -0.0008359715267941618,
          -0.0799919680321836,
          -0.022857119332708592,
          -0.17381511484946952,
          0.009440315827363517,
          0.0790497101471207,
          0.04397063225578358,
          0.16284479528839071,
          0.014227864301522489,
          0.12696191155497918,
          0.30713781691334646,
          0.08772294837286249,
          -0.1830801889030115,
          -0.15127527675277505,
          -0.041917633163690786,
          0.11761640280460904,
          -0.0930062571214264,
          0.1409039053376692,
          -0.10577791794260234,
          -0.0996273705245005,
          -0.0026319494617121665,
          0.22477497251820425,
          0.11433813296318389,
          -0.09625458321347842,
          -0.0700270942225298,
          0.13244181558645482,
          0.0294064272422574,
          0.23311195298500773,
          0.09584176257557483,
          0.031049516354876974,
          0.01613351193611461,
          0.0009030612587473993,
          0.05829027670891165,
          0.08704593076777613,
          0.21113122038314006,
          -0.0684538805546259,
          0.07684085089453671,
          -0.11940148934139373
        ],
        [
          -0.03624780641863593,
          0.09496422783551325,
          -0.019386430614024685,
          -0.08570350632339704,
          -0.004384312967566651,
          0.13941378432818813,
          0.06545197290985644,
          0.09464513726073036,
          0.2134719937114118,
          -0.01900483177122584,
          0.03519964857449173,
          -0.11542635191320265,
          -0.004564200699134296,
          -0.05139357223563239,
          0.2634763822385413,
          0.16645534297907247,
          0.17341515241001634,
          -0.07997781419787124,
          -0.03045447532087392,
          0.026730534176539093,
          -0.15233184001246647,
          -0.04800030024449691,
          0.06563006449919219,
          -0.024837657992147297,
          -0.12265769426703046,
          0.24273122765766067,
          -0.003193998921414112,
          0.0745096065597277,
          -0.19543258535155902,
          0.02427228269625482,
          0.0009861788220840778,
          -0.04009611127181218,
          -0.05800510422031431,
          0.19148167615582531,
          -0.2610581424168055,
          -0.15980196111137657,
          0.10205554719369916,
          0.019140626616517546,
          0.12150578558063133,
          -0.029848683738362768,
          0.09382501486980821,
          -0.05806206422537323,
          0.002322444647309929,
          -0.0006399124573604458,
          0.02158453350358655,
          0.011531551261342386,
          0.010594207454324473,
          -0.05858812852211501
        ],
        [
          -0.17666681557778213,
          0.22037529569865477,
          -0.12117149325462825,
          0.009904719124477575,
          -0.22413114653366498,
          -0.1172972953399059,
          -0.03792696133237974,
          0.20739754335807095,
          0.18256767647229222,
          -0.04053160073240665,
          -0.12530288277064563,
          0.13439077957668832,
          0.14438262352668055,
          -0.14139954520341205,
          -0.049194021691587014,
          0.1859980646660217,
          -0.04896251188570129,
          0.10976239868417718,
          -0.07934125691710536,
          0.04994646633280785,
          -0.16352399290635017,
          0.051278139630065486,
          -0.1279089415453038,
          -0.15315499140516894,
          -0.08245351604965438,
          0.1685079113379463,
          -0.017902564146742045,
          0.07626285423234339,
          0.03104266789967188,
          -0.1359268212427598,
          0.1543542643085124,
          -0.13719282804661787,
          0.23310490280660462,
          0.1045301517959998,
          -0.032660603003096284,
          -0.29709991326072394,
          0.01798615401664274,
          -0.01943621764112558,
          0.14532736391494103,
          -0.11482597738752337,
          0.22822054476450615,
          -0.0004795291821962297,
          0.10877666711466738,
          -0.037415692896963074,
          0.34844810834444145,
          -0.09573348774560787,
          0.024643581820235377,
          0.12102317236506122
        ]
      ],
      "b1": [
        -0.03263855582698296,
        0.08014514688768917,
        -0.02866190627856832,
        0.009386279976747755,
        -0.04704302246015562,
        0.1483029443571169,
        -0.03309401223314432,
        -0.0650750354622391,
        -0.1344167479185186,
        -0.05157661052633139,
        -0.025874370330247594,
        0.011932218697363349,
        0.027225604033292456,
        -0.09809784903909911,
        0.07521433735879686,
        -0.060789357471658916,
        -0.06909429196582181,
        -0.09157004210275856,
        0.07666176902995252,
        -0.19590933126795412,
        0.07889896448968146,
        0.1967190812744686,
        -0.055771053625027725,
        0.06637393218491339,
        -0.05969979939137716,
        -0.01723003635631231,
        0.14211794506538583,
        -0.08665762234498765,
        -0.03374367290843967,
        -0.09141318288195271,
        0.09633409504864598,
        0.03736053479251446,
        -0.04024996337386759,
        0.046243698345936356,
        -0.07386473024407478,
        -0.0626307146775287,
        0.042610049133577126,
        -0.01676082019266457,
        0.009040696725217916,
        -0.047566949450864725,
        -0.0651968328309642,
        -0.016968309118674526,
        0.0013590475767453279,
        0.13273491678591864,
        -0.07250222659605735,
        0.0687405203395445,
        0.15953716686817196,
        -0.11294096459050401
      ],
      "w2": [
        [
          0.26401494864650343,
          0.0007208204646966482,
          -0.015052547587195826,
          -0.024275022993703547,
          0.01454725249930407,
          0.10097391229786976,
          0.046646068412373315,
          -0.11113820345353433,
          0.014289705948265077,
          0.02551692462489161,
          -0.05182872264058763,
          0.18741635524789924,
          0.16142911242998859,
          -0.2533525465339007,
          0.07002845880079613,
          0.14973502425780325,
          0.1670401023418142,
          0.09393122772903745,
          0.22919237115013436,
          0.12373767985841622,
          -0.09680908267759823,
          -0.05143051588948551,
          -0.06602201333517144,
          0.11007928202239457
        ],
        [
          -0.033816672661182275,
          -0.05706309947491609,
          0.04995675786104497,
          0.14933981739953184,
          0.03185217162902169,
          -0.06291817149598533,
          -0.07806030473980147,
          -0.018779193521876084,
          0.03763420419122351,
          0.039320097179121265,
          0.10123050823810774,
          0.01890095629346217,
          -0.20620250870476486,
          0.1457020368379335,
          0.3556306378127124,
          -0.10711040810528988,
          -0.04868691299750752,
          0.18381993526140908,
          0.20076240716682173,
          0.11889353863938094,
          0.22744443144525772,
          0.2442952342785128,
          0.12887012514157176,
          0.2779336697205418
        ],
        [
          -0.19479466017578334,
          0.11823860447511597,
          -0.1165495066836909,
          -0.0779327319850006,
          -0.020398859297123755,
          -0.01392697000645538,
          0.003950255302836665,
          0.25286945963168056,
          0.04431228955448341,
          -0.049536056949924676,
          -0.05272477984319943,
          -0.01921589867612191,
          -0.18742259305588932,
          0.2168852306081588,
          -0.08087378852589647,
          0.2086714703068655,
          -0.15991493522731462,
          -0.08849011857931594,
          -0.07176435050903864,
          0.0617336561327098,
          0.08812432332625117,
          -0.13141342116218968,
          -0.16487254739404272,
          -0.013269121685522994
        ],
        [
          0.03166157868990914,
          0.04659631580289241,
          -0.215705344248776,
          0.16255803795151286,
          -0.008477869208952084,
          0.06068905967405856,
          0.06637030402717271,
          -0.10160638553676576,
          0.11013429124766837,
          0.19216758628892475,
          0.05294687765428775,
          -0.0691080321507148,
          -0.05213917018392169,
          0.02004349233635598,
          0.01850805731734886,
          0.13039656594857937,
          -0.09535188207703318,
          -0.021699714846802894,
          0.0542971840349304,
          0.013877239997150376,
          -0.01961824412269995,
          -0.09763121869979928,
          -0.04678708684611083,
          0.00613957499386408
        ],
        [
          0.1291276625554509,
          -0.030292605377584225,
          0.25063668906116626,
          0.08594630557738696,
          0.03370788781823532,
          0.09151213291656647,
          0.1001430150664722,
          -0.03915244291809561,
          -0.06791219885365811,
          0.14922772295137887,
          -0.07523335975635775,
          0.3340302469836234,
          -0.04548340592714818,
          0.023648003268382706,
          0.08202214862303459,
          0.3353465172967425,
          0.02782449521532882,
          -0.10085337942803163,
          -0.016711555844545995,
          -0.11938780186170402,
          0.0965414621705445,
          -0.11435888271245391,
          0.10293214173746104,
          0.10802145458946512
        ],
        [
          -0.18652407745653032,
          -0.09177559290993191,
          0.07332762935841691,
          -0.09821603829118411,
          0.027875160466151815,
          0.1061172260934561,
          -0.23850682862478342,
          -0.23927646924729912,
          -0.10229608253880457,
          -0.1850412878516597,
          0.049878071141150504,
          0.01619076283550539,
          -0.09510232346612646,
          0.0047418180360770485,
          0.03795264517800512,
          -0.19026591177833954,
          -0.13485304767247583,
          -0.03802912306532395,
          0.20849929988436033,
          -0.021321649892148683,
          0.13744806448158337,
          -0.14722642468164351,
          -0.13121360772770188,
          0.07923217197088428
        ],
        [
          -0.05784086701741832,
          0.1413340368970898,
          0.144283846871032,
          -0.11475803981808501,
          -0.14873073858363486,
          0.12988744346829484,
          0.0887884768857838,
          0.04266291124718767,
          -0.1266354361539968,
          0.03362966403817289,
          -0.16027928812896847,
          0.16153630028795152,
          0.07615827108186911,
          -0.08421548466778625,
          -0.07496991860420629,
          0.4701174895099538,
          0.01901054561613027,
          0.00342118336091399,
          -0.058337817603531524,
          0.046977173558071655,
          0.025025445565933314,
          0.032328689348983385,
          0.136518093574517,
          0.12731423956281548
        ],
        [
          0.2878256990492319,
          0.03160440381953062,
          -0.09156486167094077,
          0.07796593182550729,
          -0.0747264539090403,
          0.057888774404717666,
          -0.13333419426355042,
          0.005694775024644766,
          0.27693883251617646,
          0.04170050390919912,
          0.05166788150154596,
          0.21685880105778144,
          0.06656710185011505,
          0.023309434728047827,
          0.004170138230988195,
          0.1586379233599555,
          0.352528768874313,
          0.19654109476121123,
          0.008261438348293963,
          0.04422961157013527,
          0.03862458225348085,
          -0.13312403027242747,
          -0.12691885805210487,
          -0.08009486063213438
        ],
        [
          -0.005058602049046128,
          0.14377057211028962,
          -0.26284815020442714,
          0.17528305447834192,
          0.0018426881429168184,
          0.051012411717027986,
          0.188607587496275,
          0.0575114741955275,
          0.2470707145301804,
          -0.005670273859147276,
          -0.12087316220248427,
          0.00389904976009019,
          -0.09158152762844515,
          0.2394437557558751,
          -0.20211219213039106,
          0.025663182332413534,
          0.1973046750501422,
          0.0739231969239826,
          -0.05052592456912319,
          0.010592963929743914,
          -0.019139043144698033,
          -0.16133886864877298,
          -0.10238340473154808,
          -0.05797306354226774
        ],
        [
          -0.11575212725744863,
          -0.05314884930690726,
          0.04758389112177986,
          -0.28051256282255177,
          -0.09906960687884776,
          -0.18929728225866452,
          0.03212248687043209,
          0.0956075858629314,
          0.015548708250674,
          -0.1671258801615564,
          -0.07789279000343477,
          -0.0866889929444867,
          0.007429437485617625,
          0.13765572371884557,
          -0.060983297940441425,
          0.18161257576054501,
          0.09286661946158281,
          0.15739156364423876,
          -0.04031246720092442,
          -0.13474710513038315,
          0.31232751208411386,
          0.013186943713774275,
          -0.06987672085013508,
          -0.16079308129929465
        ],
        [
          -0.24466974990365317,
          0.15326793503156752,
          0.07867297560389704,
          0.012337422528188731,
          -0.0795281673779042,
          0.07594571147321608,
          0.17191971620080543,
          -0.10104054631622866,
          -0.0465337079356661,
          -0.1836999600402085,
          -0.15695378720310874,
          0.05513321475534463,
          0.03679793738251713,
          0.24137691321946586,
          0.06021003625083256,
          0.14595471325831172,
          0.0007621252512928175,
          0.11029119028042536,
          0.03679156600571824,
          -0.13470472632628194,
          -0.07345068799259155,
          0.006009208016590407,
          0.07249842991686616,
          0.13259387719900897
        ],
        [
          0.034784303348918,
          0.05637377293726197,
          0.07314040191969437,
          0.028251457127186862,
          0.19641883124646567,
          -0.07899598954448545,
          0.038306423328298034,
          -0.025575776718458742,
          -0.00790558894984157,
          0.14058277487127216,
          0.06662701171023869,
          -0.03519184448974292,
          -0.015722403508858254,
          -0.002255678758827986,
          0.11392695648590549,
          0.010523224481444432,
          0.20662254032351404,
          0.05319055281322092,
          0.12116317698693901,
          0.2743479170758369,
          -0.06885047355804876,
          -0.014081735016173384,
          0.021811842358524753,
          -0.07597417948173432
        ],
        [
          -0.012493301743054014,
          0.10125563530222939,
          -0.05821512669318944,
          -0.10348363496575952,
          0.0209486062946725,
          0.12943447804089658,
          -0.0033692676542794744,
          -0.1070707572428207,
          0.05157941209321231,
          -0.0166719335325148,
          -0.03156751754808865,
          0.0010666550612711276,
          0.05545984161769523,
          -0.06856723739747886,
          0.020457237593702597,
          0.04437702677655319,
          -0.1019434640980137,
          0.011846563677106469,
          -0.032446983587436695,
          0.00024910090521728734,
          0.09001078761632005,
          0.12560560704335522,
          0.03439077997162646,
          0.1422225946681617
        ],
        [
          -0.1019144003243588,
          0.07241620118761012,
          0.008858894298003704,
          -0.04957272743204674,
          0.1703054371594166,
          0.13125382209075737,
          0.21800784409766616,
          0.1769595118221985,
          -0.23955297870250009,
          0.10743227920162292,
          -0.10786897497586377,
          0.2727045970991818,
          0.3105024057246957,
          0.0038421937912435423,
          -0.21345741730554965,
          0.19138809422326408,
          -0.010085783597873162,
          0.1715621869373181,
          0.33270242287998075,
          -0.03301061409042499,
          -0.12625606481500465,
          -0.10579097847688483,
          -0.14778958123378685,
          -0.0725410133076819
        ],
        [
          -0.04621381778558359,
          0.049371276445535996,
          -0.1250433410933841,
          -0.019897854332128675,
          0.3381314173358037,
          -0.1773779838066227,
          0.07632369706648877,
          0.025471103772382025,
          -0.006662167823855482,
          0.061721761842521726,
          -0.023507714198212487,
          -0.1110205961827192,
          0.02764806927382837,
          -0.005359636662105261,
          0.07054211985161996,
          -0.12996143908963945,
          -0.10675246463546892,
          0.20205422413878313,
          0.004187129260301229,
          0.10494793739409604,
          -0.06780507295886279,
          0.03140486924614429,
          0.010276985900455608,
          -0.09871170594573274
        ],
        [
          0.07254746428455049,
          0.1638159020950922,
          0.035406930450884576,
          0.1187655024650835,
          0.0933923772219886,
          -0.01982007398479401,
          0.01738904886382466,
          -0.11617342071375,
          0.04382727628171366,
          0.010308272452061201,
          0.1539873864781692,
          -0.1255259420714062,
          -0.1361020828955746,
          0.08538848267094785,
          -0.18666025737808598,
          0.0015876986766651358,
          0.13375630120969076,
          -0.15487250591325732,
          0.0543247482797644,
          0.06447364569093315,
          0.12209017547985165,
          -0.08123318982138776,
          -0.055175538225672595,
          -0.08804889648372476
        ],
        [
          -0.10068975869559865,
          0.17314915624498095,
          0.07980731316160679,
          0.18159433888861012,
          0.1590080382892438,
          -0.17515510649773558,
          0.007717965058158461,
          0.06840640875695726,
          0.17308495005919794,
          -0.006824156220222964,
          -0.17590660815951553,
          -0.06644934101577943,
          -0.10384984853240671,
          0.07940990709874986,
          0.11787638597724442,
          0.11366397418540217,
          0.1640787227802316,
          0.06274329823079038,
          0.05355975614144411,
          0.05973047787429012,
          0.07811733640997494,
          0.23885721785779881,
          -0.08004398824374366,
          0.1340351259945884
        ],
        [
          0.10487994361354432,
          0.15208297373621693,
          0.1374344602815951,
          0.39479558171180146,
          -0.0065622775690148405,
          0.01588622767982591,
          -0.122904612305718,
          0.001320210389588033,
          0.10851134335043996,
          -0.04041075111561574,
          -0.09785128373972903,
          -0.07618239828953023,
          -0.1611685120804961,
          0.2966066451091832,
          0.0502387470502941,
          -0.12775976483623813,
          0.03478029566472893,
          0.05209419183307072,
          -0.02933453868930894,
          -0.007205959963745156,
          0.045675642189274314,
          -0.10533064341857391,
          0.019365175592018734,
          -0.09279674156770804
        ],
        [
          -0.11047255630983437,
          0.042782059918566984,
          -0.08052986082131797,
          -0.056487058201924914,
          0.004602501810320086,
          0.16886054753646684,
          -0.0108664771728906,
          0.0719949016638115,
          -0.15551561846128492,
          -0.1160580357171139,
          0.19190474642044164,
          0.041708973207333945,
          -0.03478845507479219,
          -0.12764003438465274,
          -0.04588988264644744,
          0.05929163306643135,
          -0.03550946484186945,
          0.05876729370986374,
          0.0015181071606822944,
          -0.08092553624539264,
          0.29172122277923906,
          -0.016699896691408495,
          0.001962691365525778,
          0.06068921859681237
        ],
        [
          -0.0014983083526723096,
          0.33305408526537134,
          0.03523170222653994,
          0.08876678309742035,
          0.028063189570323246,
          0.15924990450246007,
          0.18034482301505889,
          0.00441643667014827,
          -0.10710178565812709,
          0.09125396237001741,
          -0.2249520664186893,
          0.014913234448932769,
          0.12257525803062128,
          0.0747139181372941,
          -0.08990603665680888,
          0.22577078031992806,
          0.19341775077982776,
          -0.09602250823596813,
          -0.19105501141074194,
          -0.0654906314609661,
          0.11733397561808857,
          -0.022780701809658903,
          0.09204048120928107,
          0.008621440330245879
        ],
        [
          0.06392352997478962,
          -0.07550502789282126,
          0.17712175214843887,
          -0.04004331572849362,
          -0.0027207055389240798,
          0.07971000112396583,
          0.082951750920332,
          -0.014043593607669474,
          -0.04597176727959911,
          -0.01227521094089607,
          0.27726853776940963,
          -0.23057665528445911,
          0.05062083473975371,
          0.0187862349916686,
          -0.11514121693639101,
          -0.14957897279421498,
          -0.06395721898817527,
          -0.12423003121902593,
          -0.02077408056292706,
          0.06256179987745274,
          0.021251753629796963,
          -0.17524897903881972,
          -0.14166533212686344,
          0.19221274447300862
        ],
        [
          -0.1327676689548637,
          -0.1079330715685438,
          0.17366491983882892,
          -0.07972997395439099,
          0.003918881171431525,
          0.18357151941118846,
          0.15289080328210994,
          0.06982381658714447,
          -0.05482066234975769,
          -0.2558153957459086,
          -0.03589341330827298,
          0.0191722912712772,
          -0.05826410227388224,
          -0.05885344947118031,
          0.058716115052529036,
          -0.07042380448555347,
          -0.18873110203823615,
          -0.022300057356076076,
          0.032448543238672696,
          0.08987817108344145,
          -0.020879208632658942,
          0.020610020351452093,
          -0.11100190641758136,
          -0.05438374521251393
        ],
        [
          -0.06472387700918115,
          -0.10024861363749372,
          -0.014243859300686812,
          0.15839918407496606,
          -0.05040596142758966,
          0.007670520663300287,
          -0.17924956045605125,
          0.03289186318375409,
          0.14237851389820322,
          0.01035376732208957,
          0.047453264799866016,
          0.1266006060809515,
          0.14598035467477855,
          -0.012499950206567401,
          -0.010297665595499763,
          0.15586077187985872,
          -0.058304596652418286,
          -0.04414990674030571,
          -0.006254159946825029,
          0.010003619797223166,
          -0.03248013880124108,
          0.15025951941936258,
          -0.014121047610409204,
          -0.04454435296034499
        ],
        [
          0.1505514545662333,
          0.11147111013843572,
          0.24637401163500955,
          0.09259578194643087,
          -0.11539346668505339,
          0.2228863127783884,
          0.1376783879561274,
          -0.10627778214261938,
          -0.04013149603166059,
          -0.15491400979413622,
          0.02254306472299265,
          -0.03494977952458127,
          0.05526780463031002,
          -0.2551268174544753,
          0.1145819961932892,
          0.24428876702394386,
          0.017106890511792767,
          -0.14848119573714608,
          -0.05541657445544173,
          0.06036038775951032,
          -0.29505188507165236,
          0.06638995898835968,
          -0.17211637620152884,
          -0.016542651867921008
        ],
        [
          -0.0726150884114292,
          -0.022292789884724246,
          0.08380134393470443,
          -0.06691273670379995,
          0.0091781049179933,
          -0.1556334276421355,
          0.029154725017983427,
          -0.150564833087908,
          -0.015549363685885024,
          -0.024134832156117583,
          -0.001469561654471593,
          0.10222460356803756,
          -0.013521695197730483,
          0.06881158396774566,
          -0.0889641431221405,
          0.07762641803828772,
          -0.03198141198701761,
          0.07108908746156833,
          0.023365800531060337,
          -0.08548447293605782,
          0.16605879959926922,
          -0.059647267920683734,
          -0.1638061482064515,
          0.22736705248234051
        ],
        [
          -0.047163218989049197,
          0.04546714355583448,
          -0.03195128149100829,
          -0.03662664799014971,
          -0.026901161219672055,
          -0.21118569362559242,
          0.0100230443400609,
          0.23418869409376364,
          0.12177620506620547,
          0.03735509106485583,
          -0.03904266175958612,
          -0.13525660894811153,
          -0.09880266801387158,
          -0.05335109285915226,
          -0.1206892142524066,
          0.12295402698330397,
          0.11153882077857483,
          -0.05476612804809579,
          -0.016747791477345102,
          0.2603154190985789,
          0.06647227575679546,
          0.16262995451854426,
          -0.06331943959583805,
          -0.15486484114531276
        ],
        [
          0.017344576185466247,
          0.02369802018079712,
          0.15773719377238965,
          -0.14568324846914837,
          -0.03497246563491724,
          0.248767791142988,
          -0.11746857734923014,
          -0.04417086169726545,
          -0.03131131833612847,
          -0.12273716037674205,
          0.10645998515721503,
          0.07761108301841423,
          -0.150008642293726,
          -0.09609851900083317,
          -0.08929116062215288,
          0.2854065160122474,
          -0.052354800263330205,
          -0.07551013576592139,
          0.2185029581738461,
          0.02772200218587127,
          0.26157700632176856,
          -0.05807015658678281,
          -0.19646343738141112,
          0.2159860628750983
        ],
        [
          -0.051638380417449434,
          0.10351121471368259,
          -0.02816046183920466,
          -0.0890428560580317,
          0.10259502149609578,
          -0.12134989024654519,
          0.049057077078450105,
          -0.03511725824052946,
          0.12178277699943621,
          0.23648372273749882,
          0.01980454013457496,
          -0.03682605435039802,
          0.30201351108871094,
          0.29062527824287754,
          0.007875124886762069,
          0.07646636573040501,
          0.23762417715451578,
          0.014843771878409158,
          -0.09876697152285004,
          0.1451074774874556,
          -0.12770687441681133,
          0.21509157871893705,
          0.21883060915335548,
          -0.08453853281268661
        ],
        [
          -0.06614600482792514,
          -0.14570681228790328,
          0.20970952851980804,
          0.014221493616379732,
          -0.11741369193425713,
          0.00468238292727457,
          0.1707728926888614,
          0.03898934525893135,
          0.13060669166161237,
          -0.23753840664336198,
          0.041228987540002385,
          0.19759563596642862,
          0.06346195311821498,
          0.03459172114785031,
          -0.05432268803488035,
          0.10860482426629109,
          -0.09359917953852645,
          -0.14966164269226684,
          0.25332398707904313,
          -0.10749977808083637,
          -0.05401181301144729,
          -0.3346803058686658,
          0.07639767867413363,
          0.048974536868710776
        ],
        [
          -0.06012073551805422,
          -0.040527727205407885,
          0.027486180037804182,
          -0.0820061262619209,
          -0.07873113457386689,
          0.07368916214917863,
          0.16586841265414623,
          0.12076018909595881,
          0.00892312220627103,
          0.1371861706132901,
          0.12334251345699249,
          0.3006518036196303,
          0.14050787892456,
          -0.1555610587704986,
          0.010809557876859072,
          0.18485097943533285,
          0.16358736344324207,
          -0.05222340218891766,
          0.13150260784538226,
          -0.0028896342532469515,
          -0.16053750238168715,
          -0.05487719807076879,
          -0.11209632701345149,
          0.3078921999102856
        ],
        [
          0.055652497640134725,
          0.12363010953094479,
          0.06232860207417668,
          0.07046484619494907,
          0.1438291089883754,
          -0.018033967438255864,
          -0.1091029717949096,
          -0.08582371713679003,
          0.12593428521503305,
          0.005934500895368963,
          -0.07176050944792113,
          -0.13224483237129334,
          -0.07013945112430303,
          0.03553301507644023,
          0.003659154295309882,
          -0.05519797260044111,
          -0.12207594245644739,
          -0.03759262574965671,
          0.18688182315950222,
          0.27883573472202944,
          0.029912330106615155,
          0.18842165910410352,
          0.022716441099406556,
          -0.1288528548565625
        ],
        [
          -0.030098718856242903,
          -0.143542802933547,
          0.04892597897182019,
          0.013123329874846608,
          -0.22202025172165235,
          -0.07231458016956333,
          0.19625386586412538,
          -0.06138707721816001,
          0.018715808168395673,
          -0.04705752506333999,
          -0.0820997274480487,
          0.019800666419626006,
          -0.06909856967252133,
          -0.08514513623684143,
          -0.014563076543843763,
          -0.22369547122602826,
          -0.2099048262925617,
          -0.20566178721178968,
          0.13081772270761982,
          0.06035531373179247,
          -0.002861630760759633,
          0.05109666155052326,
          0.07959237082592963,
          -0.27463484629425766
        ],
        [
          -0.20987679837010287,
          0.05889967429302692,
          0.09544400816935504,
          0.053953843685705584,
          -0.15332685068938628,
          -0.020066867799018236,
          0.08998385859119393,
          -0.016428292123746656,
          -0.05802916103642763,
          -0.055611070981488625,
          0.1167982705275838,
          -0.161488292371837,
          -0.07571849585654979,
          0.13577343549112822,
          -0.08105611496808059,
          -0.3399852955202502,
          0.13474201930890245,
          -0.025906796134445496,
          -0.17847515346044218,
          -0.08384426849159732,
          0.05036829967806951,
          0.10885870362764642,
          -0.11257060055756245,
          0.04386066463915261
        ],
        [
          -0.04057756616590016,
          0.05907851319492489,
          0.07191901165390528,
          -0.1942378293632961,
          -0.041171080872545666,
          0.3090186524741674,
          -0.14638197674029899,
          0.014958841176411358,
          -0.07999859867285986,
          0.10354674454971954,
          0.06588960828937844,
          -0.09099273840511511,
          -0.006093396156253707,
          0.11013749429352451,
          0.15554556938787453,
          0.019238259413487446,
          0.28738169011325176,
          0.07033557720797462,
          0.12876960921282143,
          0.16457275383320613,
          0.01467748573756817,
          0.11596954817280124,
          0.08700964042359016,
          0.007705597750718591
        ],
        [
          -0.10924418552903657,
          -0.042679558196772355,
          0.20035727994598834,
          0.010439042312344169,
          -0.08787460314803976,
          -0.019160672404216234,
          0.1957523427021066,
          -0.15455192988549085,
          -0.17343514381266617,
          -0.08008601016705488,
          -0.10310441305197321,
          0.27293667929283866,
          0.053772134560095906,
          0.0668213626374195,
          -0.04296904039381556,
          0.22947488917937106,
          -0.031116024455920238,
          -0.11734937925249928,
          -0.011087811881748715,
          0.02999033263865264,
          0.05975692613887513,
          -0.07118326932061723,
          0.10605470684811004,
          0.13383758846607238
        ],
        [
          -0.03706678665638836,
          -0.14525118543660584,
          0.1921157745412168,
          0.03569235712066626,
          0.08829952462075231,
          -0.07406604404592229,
          0.07591086570026762,
          0.09256378104209215,
          0.022860251031285205,
          -0.0029378221154157526,
          -0.13196845455782164,
          0.24811707023755525,
          0.10527286601213096,
          -0.07549057265722199,
          -0.19740054772435586,
          0.20962362882191232,
          -0.12612642934580287,
          -0.033177354169533636,
          0.03834350811007547,
          0.2215253867241015,
          0.05135707509660127,
          0.18168931288006385,
          0.041038253363949444,
          -0.029695234075440512
        ],
        [
          0.1319199258442509,
          0.2055839922221557,
          -0.03782966293172446,
          -0.04923250178410128,
          0.1380417270184538,
          0.2546940609488237,
          -0.03966969934541088,
          -0.06592283618549023,
          -0.014950534261056364,
          -0.04516599700119132,
          -0.05928193938279927,
          0.04654449124258481,
          -0.02980232371958111,
          -0.06737253217451125,
          0.07533441124282948,
          -0.1800604461201992,
          0.14185892125087524,
          0.19367511436517315,
          0.084569742034895,
          -0.040404382611208156,
          -0.10223095789975448,
          -0.07754290360063511,
          0.05912938668532497,
          -0.044993963456549185
        ],
        [
          0.08736484707561784,
          -0.016735835286701372,
          0.04802821614173995,
          0.14417008938949188,
          0.03825055326468139,
          -0.09286436988210434,
          -0.021960551443873152,
          -0.23072443965366685,
          0.02643039282882899,
          -0.251880744409286,
          -0.05430775526948272,
          -0.08818797159947862,
          -0.04371916613954986,
          0.1098146775426295,
          -0.026338177514416156,
          -0.006247152646779851,
          -0.17751384867868225,
          0.013276843654781897,
          0.08877751456079379,
          -0.13389221573138352,
          -0.0746078456750104,
          -0.28686909211973566,
          0.1054237224398121,
          0.023257778943223405
        ],
        [
          -0.19978502588685593,
          0.14497745086658512,
          -0.08556607823725235,
          -0.13937535281854688,
          0.22961595745945976,
          -0.02625821220962983,
          -0.10293523987819136,
          -0.2199175257399524,
          0.11655169130609683,
          -0.021973672781490254,
          -0.1513554983011859,
          -0.01605357113389859,
          -0.11197982525191419,
          0.10803695303252432,
          0.11507762550399296,
          -0.04730675588434686,
          0.20652660509492204,
          0.09978422001990986,
          0.15164142435954434,
          0.1615046886699133,
          -0.13765713478040767,
          0.1816312813454006,
          -0.01761650727782614,
          -0.03378342785207639
        ],
        [
          0.02663085520043852,
          0.044169044280214516,
          -0.05404766799245707,
          -0.025309196164977843,
          0.016559806691734243,
          -0.10457701327964256,
          -0.18785951011186705,
          -0.004488976978052757,
          0.010976136182012288,
          -0.0660503214605784,
          -0.07247780796016205,
          -0.03812968413827492,
          -0.02332132945933713,
          -0.04808257906216937,
          -0.024766406104189998,
          -0.026892355676799668,
          -0.09864326804998991,
          -0.24812475471065878,
          -0.07690467404540262,
          0.015603844331497814,
          -0.29626318433599735,
          -0.1289647428163676,
          -0.232070033575176,
          -0.06555047491148802
        ],
        [
          0.04027431961464861,
          0.12261394630067678,
          0.04367672963199868,
          0.13511879506928084,
          0.005583452257689031,
          0.04176745791425504,
          0.10388478791558414,
          -0.1570979826513774,
          0.15233772478293398,
          0.10760783965658252,
          -0.0044798047546245,
          0.09346652661329707,
          0.07202936720884241,
          0.07874065842699016,
          0.055125333687050346,
          0.05707803397784893,
          0.24208217973920843,
          -0.1180956817912989,
          0.08694991790337299,
          0.22779642809046735,
          0.0819226138691241,
          0.03199374182869352,
          0.07446213644015777,
          -0.0804615155206733
        ],
        [
          -0.010110774483639251,
          0.004816983264423726,
          0.09735275812014071,
          -0.11214899611723021,
          -0.09067407413404899,
          -0.022783445565407803,
          0.07890769789564919,
          0.027621788145699083,
          0.13272174635285186,
          0.07424630802817499,
          -0.060874706834665296,
          -0.1496737724590903,
          -0.16254372070324238,
          -0.08960104024263525,
          0.1377342502920252,
          0.007795645884430586,
          0.05983217319427575,
          -0.1426235124866148,
          -0.07303580421755126,
          -0.0962221597458391,
          -0.09325817610046681,
          0.000827573343695681,
          -0.024299868467815705,
          -0.09311429021708703
        ],
        [
          -0.08341378337732311,
          0.06293637733918664,
          -0.15980084153567894,
          0.13679030328815234,
          -0.02696714193793288,
          -0.10060991693683102,
          0.03322596921739404,
          0.10602212704492898,
          0.07249784537666477,
          0.03818189141406195,
          0.08892601097671833,
          -0.05792092567203539,
          -0.07350204668053112,
          0.015667922072822065,
          -0.05299419316859946,
          -0.15070184159979202,
          0.33783306210121933,
          0.15610745932535045,
          -0.00040637885713205445,
          0.24841526439558553,
          -0.17406088441721737,
          -0.0027051034307376104,
          0.18719506620279797,
          0.08141897371427549
        ],
        [
          -0.026991054798198435,
          -0.1470713142365096,
          0.135443527877729,
          -0.13160955122657442,
          -0.06892078171996271,
          0.010164661707460002,
          -0.002326426122295938,
          0.019541945183513775,
          0.05739948963187232,
          0.039927943848838694,
          0.29801519053669945,
          0.043064388892939856,
          0.0014580733413664191,
          -0.21506722280692506,
          0.11661782296448651,
          -0.07511824342970998,
          0.13023093129551494,
          0.03578893101762591,
          0.11206862915489413,
          0.18687891386948385,
          0.19509328190092828,
          0.011377078379234538,
          -0.11484871048841695,
          -0.001067890462219227
        ],
        [
          -0.21033915491674082,
          0.08897414697551984,
          -0.020426739002712736,
          -0.30265339794045043,
          0.14785529528258098,
          -0.16311915411796724,
          -0.04933528616113818,
          0.015725582791703857,
          0.06265541969886465,
          0.0794206856994529,
          0.002883939498713244,
          0.024730433252516386,
          -0.11425542246201413,
          0.18949670873581312,
          -0.054352227879769115,
          -0.17965966690893734,
          0.22166425045189808,
          -0.07815781109548854,
          -0.35075754038909923,
          0.35715432410360787,
          -0.10382154177188137,
          0.052074375030440566,
          0.2704113977891215,
          -0.13162385373415159
        ],
        [
          -0.02251503978461597,
          0.03374131314600872,
          0.15454513110166548,
          -0.13993132186271273,
          -0.1542405284729514,
          0.1584940927307547,
          0.0430862075585075,
          -0.14045765895376927,
          -0.1721902804432759,
          0.09967123052847814,
          0.14524879999910306,
          0.04929151227802827,
          -0.021943347559851358,
          -0.06192476351490632,
          -0.29254439024694917,
          0.21057020546250765,
          -0.009180774915873189,
          0.13458886462946443,
          -0.024873846208945786,
          -0.04171344707296674,
          -0.005860107430868706,
          -0.010248406190067788,
          -0.039068920692245046,
          0.1859994331882059
        ],
        [
          0.14433027049482755,
          0.09874328240681686,
          -0.04741534129986746,
          -0.012340213460905278,
          -0.10340517641531817,
          0.3381162971181383,
          -0.04962124709958298,
          0.027743563302265423,
          -0.09337327937465831,
          0.05568615263207285,
          0.11867355526860768,
          -0.10533898698057771,
          0.056889746900752394,
          -0.10395429332157116,
          -0.05604179647534233,
          -0.010999212318204044,
          -0.10006529463086977,
          0.12251609735927678,
          -0.014929069409551412,
          0.02558381392861092,
          0.060150531227299124,
          -0.0780177486676106,
          -0.03213913215667991,
          -0.022638575253239528
        ],
        [
          -0.19980132276051366,
          0.22814739191932473,
          0.07383301198140373,
          0.038842245223018886,
          0.08036367172077914,
          -0.1461988727774125,
          -0.022517381029212823,
          0.1367009102127771,
          -0.04210024223077211,
          0.0408321988802961,
          0.03711109696409988,
          -0.17711360036941887,
          -0.06364757583153653,
          0.09174066388386225,
          0.015229069410792528,
          0.21751153735523088,
          0.1166842623762983,
          -0.2357642473298548,
          0.1707259615056439,
          -0.11238208596785791,
          0.042234340852467696,
          0.03949564549552316,
          0.04452113017188411,
          0.021588539320866212
        ]
      ],
      "b2": [
        0.003349318637887142,
        -0.26518693514476693,
        0.09605551318015515,
        -0.025307228231542495,
        0.10708756368841638,
        0.6208014145381804,
        -0.03347680606591413,
        0.003127570612095994,
        0.05306123936775643,
        -0.1581626764687014,
        0.20863907180500724,
        -0.2611796986246367,
        -0.24278185807932154,
        -0.21439573696002498,
        -0.004338862499823203,
        -0.14921921136356117,
        -0.20777657785012513,
        0.1663252370663848,
        0.16550710515093364,
        0.2697763360286438,
        -0.0075655552131025944,
        0.19037058027602907,
        0.033576960024862365,
        -0.04461606272691976
      ],
      "class_w": [
        [
          -0.09404423534363897,
          0.07527793863465378,
          0.031013168249446593,
          -0.05185574664079008,
          0.07750043102021342
        ],
        [
          0.47691257231165507,
          -0.1786660275928563,
          -0.17777229466416966,
          -0.10988645358806855,
          -0.06132266361449854
        ],
        [
          -0.14894141603347202,
          0.10041407263223981,
          -0.022171781537177988,
          0.319737387106564,
          -0.21961350747823585
        ],
        [
          -0.020685844070604996,
          0.041135522242716806,
          0.02276360612309033,
          0.07081394959240467,
          -0.011707970984040505
        ],
        [
          -0.08235920424158374,
          -0.006566475649105257,
          -0.012439316173619576,
          -0.16222588995418977,
          0.22137657061351948
        ],
        [
          -0.15824110955172974,
          -0.15501156221528284,
          0.5786582315004796,
          0.42974185671277293,
          -0.30406460461750817
        ],
        [
          -0.24830035363061623,
          0.2657129205036188,
          -0.026323794187231814,
          0.08981972252225316,
          -0.07079641760391231
        ],
        [
          -0.008401237022758596,
          0.059846209394251185,
          0.02250741409497016,
          0.09306574446363632,
          0.13379362723457577
        ],
        [
          0.15243178638179553,
          -0.05731977720451935,
          0.029523140059152728,
          -0.15798720280269274,
          0.22417658344037336
        ],
        [
          0.20679030104748117,
          0.018616186226213496,
          -0.17184178614943718,
          -0.1346135651393448,
          -0.07916711013282025
        ],
        [
          -0.2564834752720533,
          0.0115020938659692,
          0.14618453383256785,
          -0.05806551988850143,
          0.19875334609488995
        ],
        [
          -0.11979939386831642,
          0.6575155407101674,
          -0.39277590950692226,
          0.1559476701715643,
          -0.08555092649940707
        ],
        [
          0.008573033207298474,
          0.2855307616651381,
          -0.1362560197931904,
          -0.2185368611596035,
          -0.07781011894422299
        ],
        [
          0.3934498279187091,
          -0.06640142816901662,
          -0.2598497990948767,
          -0.07229503455234353,
          0.10317108179218014
        ],
        [
          -0.029168609521185107,
          0.03759899649093856,
          -0.07480422974151055,
          0.08903833675163228,
          0.2540636092573318
        ],
        [
          -0.28427612412972625,
          0.4653154775525337,
          -0.34832489550967644,
          0.2523038227462121,
          -0.22676315837110383
        ],
        [
          0.6341261681806599,
          -0.335524875432671,
          -0.22984633632203424,
          -0.24916078207259548,
          0.29369957021900917
        ],
        [
          0.012662049973263841,
          0.15916042864097513,
          0.17048247358673865,
          -0.19797474205794466,
          0.23935416066386683
        ],
        [
          -0.318975334325033,
          0.14629917344445845,
          0.1189402554873105,
          0.1812878937717265,
          -0.09449131062016464
        ],
        [
          0.14799043257313815,
          -0.5018218171062662,
          0.19968045232286766,
          -0.3459983710574798,
          0.1908349973681514
        ],
        [
          0.006235232797006791,
          -0.022285664710298043,
          0.0037641053975999406,
          0.19997743578423616,
          0.07737675973442312
        ],
        [
          -0.19575227420651464,
          -0.1368882906803203,
          -0.05144524432814362,
          -0.19968990916998375,
          0.31532251841412867
        ],
        [
          0.1034259756294613,
          0.028770487818456942,
          0.037402242612731174,
          -0.23677895473713567,
          -0.017996284878598244
        ],
        [
          -0.10891574795996567,
          0.20744774814348235,
          -0.17052368305995522,
          0.17901857819787054,
          -0.14318564693380992
        ]
      ],
      "class_b": [
        -0.7353480614807061,
        -0.8492256087620306,
        1.1959015944921294,
        0.2355996003915261,
        0.15307247535908147
      ],
      "reg_w": [
        [
          0.034645540173787
        ],
        [
          0.16084536792317083
        ],
        [
          0.1228657521602326
        ],
        [
          0.18778255031914107
        ],
        [
          -0.06173225223391749
        ],
        [
          0.04286559972319576
        ],
        [
          -0.22817945869136783
        ],
        [
          -0.029940915571395877
        ],
        [
          0.05484632867333006
        ],
        [
          -0.21255220632337934
        ],
        [
          -0.0978724820518464
        ],
        [
          0.0772928317176649
        ],
        [
          -0.06690591894914048
        ],
        [
          0.02402541710684603
        ],
        [
          0.20639888716189342
        ],
        [
          0.1290251315853798
        ],
        [
          -0.185401807135837
        ],
        [
          -0.008075559394084948
        ],
        [
          0.03149396600336557
        ],
        [
          -0.05055264007818484
        ],
        [
          -0.03494132168499342
        ],
        [
          -0.012916199646606827
        ],
        [
          -0.21089944539467562
        ],
        [
          0.0823754073616624
        ]
      ],
      "reg_b": [
        -0.019177064157540717
      ],
      "target_mean": 17.69916380952381,
      "target_scale": 19.545497409787853
    }
  },
  "regression": {
    "selected": "linear_regression",
    "metrics": {
      "mean_baseline": {
        "mae": 17.0528
      },
      "linear_regression": {
        "mae": 0.6674
      },
      "neural_mlp": {
        "mae": 1.1959
      },
      "weighted_fusion": {
        "mae": 0.8621
      }
    },
    "validation_metrics": {
      "mean_baseline": 16.952862024126986,
      "linear_regression": 0.6834668463242126,
      "neural_mlp": 1.2259156162800424,
      "weighted_fusion": 0.8726096217963355
    },
    "fusion_weights": {
      "mean_baseline": 0.0252315277329204,
      "linear_regression": 0.6258483650152435,
      "neural_mlp": 0.34892010725183614
    },
    "mean": 17.69916380952381,
    "linear_coefficients": [
      17.699163809523665,
      -0.3090066436314325,
      -0.3040493597957025,
      -0.37680849009393425,
      -0.23606011983321992,
      -0.07345348107172386,
      -0.04592827500512001,
      -0.3687874405938893,
      -0.4060371361130257,
      -0.3728672118855183,
      -0.32786798070647827,
      -0.27986666837896024,
      -3.099915727848618,
      -3.1846594581665113,
      -3.2093027117760964,
      -3.1849548797902423,
      -3.1461618282727044,
      -0.3629907543819923,
      -0.31201710787969555,
      -0.2818495804977879
    ],
    "neural": {
      "w1": [
        [
          0.0743608493845262,
          0.049478504575439085,
          -0.07098357557204345,
          -0.14139074591521902,
          -0.2709413446906813,
          0.021021778009976143,
          -0.1505084734160799,
          -0.05935530948957818,
          0.004224789750186437,
          -0.001427524886791888,
          -0.2733364921916704,
          0.15181082118852784,
          -0.23028713245906696,
          0.14648746487047695,
          0.08193232672730294,
          -0.02123767848254772,
          0.179902469553982,
          0.03015695541751578,
          0.07417473756523175,
          0.03665315169381472,
          0.10541146489934133,
          0.10854047056748511,
          -0.11283140832399495,
          -0.08732353191337744,
          0.011546760200431286,
          0.009073839104095023,
          -0.3036363213969923,
          0.2967886518436996,
          -0.2905395210746201,
          -0.29220795052071574,
          -0.12123695250151566,
          0.06708798088542053,
          0.2084814797978535,
          0.02873313056824336,
          -0.09618920100772059,
          -0.025794006780532647,
          -0.02562869654502209,
          -0.009319755522206338,
          -0.06103144730411113,
          0.051446256749933084,
          0.09316287331619331,
          -0.24732809037977654,
          0.06460806157027499,
          0.02891478790497484,
          0.1450668126339997,
          -0.1251825309575943,
          -0.142802463003545,
          -0.08271828413692414
        ],
        [
          0.01377197350174795,
          -0.07075891614339291,
          -0.09653502670608045,
          0.12159694639547607,
          -0.15274874356909546,
          -0.08049903424442834,
          -0.07436184487716976,
          0.053367777595960605,
          0.13401480791933895,
          -0.08642535416321295,
          -0.19661012301721897,
          0.036649072951135286,
          0.06422878752901164,
          -0.21839654041488807,
          -0.032200309660906395,
          0.059269808291382405,
          0.06313500146619126,
          0.03319934632789695,
          -0.03084544819806556,
          -0.07050823989220238,
          -0.11910453291629124,
          0.12314120112343599,
          -0.136255321458837,
          0.11475913921810739,
          -0.16744014334790241,
          0.34756587711224024,
          -0.24640436809746963,
          0.24704533480514024,
          -0.15134200437435616,
          -0.07998797095425159,
          0.016342718851531674,
          -0.06630541814125171,
          0.2550148125539803,
          0.062351315769983186,
          -0.1980073281385481,
          0.025037274758120134,
          0.09191235941678468,
          -0.1430809910657084,
          0.12199135535307482,
          0.01122270775665926,
          0.1353290560871446,
          0.0944352518611743,
          0.0717195397351104,
          -0.02824694703772892,
          0.17768332131332384,
          -0.0014723865240527554,
          -0.161218418488308,
          -0.04252662846684537
        ],
        [
          -0.10077859099618847,
          -0.013625070951010619,
          0.23159348791095968,
          -0.04513231633169681,
          -0.021407576738522834,
          0.2035394965336197,
          -0.014478165922367048,
          0.07983022186616337,
          0.16691727294650283,
          0.0236627110781014,
          -0.008648078960639093,
          0.12571932223525856,
          0.03814463515161132,
          -0.13339079470085607,
          -0.10794806647525833,
          0.016268695086452924,
          0.184057205298546,
          0.0029176314469060677,
          0.12438412153465223,
          0.06627487743294055,
          -0.04925427910316611,
          -0.30398170843511285,
          0.00809277915278218,
          -0.054159662676242955,
          -0.19916214883236105,
          0.08598308528686871,
          -0.06316138326511518,
          0.11443307915068301,
          -0.12357502768129043,
          -0.04942713611139394,
          -0.029653480839918624,
          0.12641016857852816,
          0.02685606887244642,
          -0.09926266381511031,
          -0.03484283297130657,
          -0.039155883366308014,
          -0.006575699557038641,
          -0.16536421279201954,
          0.1799302736621661,
          -0.07362173381540235,
          0.22090696085278919,
          -0.05397138964569601,
          0.07911723708922051,
          0.007681700664290067,
          0.09920710981155254,
          0.2501932398161003,
          -0.04864893789889521,
          0.23593540829736823
        ],
        [
          0.021311750410999353,
          -0.04162282330085491,
          0.11915488696637631,
          0.08838983012141481,
          0.029453353600839595,
          -0.12948213319061316,
          -0.01465627294745495,
          -0.01618935225510025,
          -0.006001148493524507,
          -0.00844001501505549,
          -0.02391681360919788,
          0.22418845820564168,
          0.03504226021789365,
          -0.25866611814518864,
          0.1655886639049341,
          0.02976988507191031,
          0.05274406703501464,
          -0.18019861581132754,
          0.04092960491581706,
          -0.05642566536438992,
          0.0932767620366451,
          0.049877567707691514,
          0.07376121569794275,
          -0.06478941601784324,
          -0.22226472819285356,
          0.13654835720974892,
          -0.014793785092280996,
          0.03353295260622821,
          -0.11734835439656029,
          -0.16634671021854924,
          -0.173738983476168,
          -0.12325678518416623,
          0.004089948514794746,
          0.22761270246352028,
          -0.009201373490700725,
          0.1271667558988105,
          -0.0997606319102156,
          0.11718657452237352,
          0.01857722554448576,
          0.1565211108932064,
          0.17310569480335683,
          0.019597100309583417,
          0.08476316239206073,
          0.15973451977827324,
          -0.015749978395468378,
          -0.2766236122511526,
          0.09877192223962956,
          0.23868188653233277
        ],
        [
          -0.2451489553946792,
          0.037031050881300015,
          -0.13483034927439186,
          -0.034848513700221864,
          -0.15753750923242982,
          0.11904961571963364,
          -0.1067895556104779,
          0.011781658063948255,
          -0.09598561647172335,
          0.06877657044955349,
          -0.07387242208053582,
          0.006450955383970612,
          -0.01427068572271139,
          -0.2008225686589518,
          0.014961699747225037,
          -0.15015220085298947,
          0.01046379555729106,
          -0.00230781315449599,
          -0.04701113994472103,
          -0.00303402679884701,
          -0.10019950235167148,
          0.052983083575035665,
          -0.010298857604378351,
          -0.07100607069867385,
          -0.04164745344934429,
          -0.04402732484949385,
          -0.06157229863204809,
          0.037379360364504545,
          -0.23905935030030454,
          0.12093367913013733,
          -0.03368400303562287,
          -0.0762233542677717,
          0.04068349574918293,
          -0.1798768831588117,
          -0.08376389419277842,
          -0.0023728301550945724,
          -0.01786809397899671,
          -0.010057657235154126,
          0.01204409268558988,
          -0.03588467756610436,
          0.040232295202615724,
          0.030344791282112885,
          -0.05061429044415489,
          0.04358904343858397,
          0.10795274322385763,
          -0.09656975680138212,
          -0.06460745050046801,
          0.02347276366593584
        ],
        [
          0.08713412592403912,
          0.12657683708372236,
          -0.09531044371455341,
          -0.06318733593940692,
          -0.11246889534599282,
          0.06439373126786836,
          -0.06697070316870093,
          0.05795117399596917,
          0.14845120834148234,
          0.02756430768042663,
          0.01859544449766784,
          0.07410944514991268,
          -0.09564928770080733,
          -0.06635939536280765,
          -0.009730218990743705,
          -0.03939167525678094,
          0.17542531112907447,
          0.07167741171307088,
          -0.31486998055736326,
          -0.07928060383229016,
          -0.03197137151271575,
          -0.006227958877501752,
          -0.10209650793529211,
          -0.05377943335969079,
          -0.06790304125638887,
          -0.024494297442425105,
          0.02191586218724031,
          0.04472782154980588,
          -0.10818941819336501,
          -0.09032203826468985,
          0.01784163272499136,
          -0.12292510069093299,
          -0.05745332182435669,
          0.10105786526438158,
          0.05579053241894529,
          -0.2907964189761651,
          0.287650291558279,
          -0.0825191488137292,
          0.1349384265491464,
          -0.13255383492349718,
          0.10646046896688115,
          0.017047498224445973,
          0.047836302650124424,
          -0.01824101458176202,
          0.03360088896148378,
          0.05748426962033234,
          -0.08543955395633435,
          -0.013226731206849484
        ],
        [
          -0.0910521405621232,
          -0.1579931710161958,
          -0.0038682249464865874,
          -0.008145762617094703,
          -0.1241528971098604,
          -0.13191086886306314,
          -0.10580409579407717,
          0.01622309608387312,
          0.023310910540350626,
          0.010820342654209433,
          -0.15884286854143817,
          0.16446329556731662,
          0.08001008485526433,
          0.025425373014896748,
          0.07327477889351172,
          0.17176101140436487,
          0.11709479650418339,
          0.14831456382030317,
          0.033204109710809664,
          0.034954625959938784,
          0.05508832866399176,
          -0.08881748617900448,
          -0.04088238831946311,
          0.001704205655333498,
          -0.09146859859726766,
          -0.23314546876740994,
          -0.1205459054693047,
          -0.002345730343504323,
          0.0362248153345143,
          -0.27889294010174565,
          -0.0611929928805751,
          0.18210990324934767,
          -0.245042635962024,
          0.023917537475313378,
          -0.12876080524443112,
          -0.23547214947258616,
          0.01521437457576695,
          -0.1166928242327296,
          -0.23028360955854377,
          -0.06282435588381889,
          -0.09911822293533826,
          0.13450031399000642,
          0.07880899334737784,
          -0.10802335220757779,
          0.10705576659982328,
          0.1704049034761162,
          -0.1386455731082483,
          -0.09227378417650757
        ],
        [
          -0.0614462200150769,
          0.020179941123049064,
          0.0017533932756654438,
          -0.16994977520482887,
          -0.06420984669732953,
          -0.11126713137082297,
          -0.15631574035517193,
          0.12894194886642144,
          -0.058270502578588845,
          0.06377750646744518,
          -0.0676207249718466,
          0.0649068172562545,
          0.0072181982946845835,
          0.006761417211814699,
          0.09805140843905893,
          -0.05586394402360963,
          0.209870674541252,
          0.0886537888626649,
          0.10134747855329815,
          0.12418399014798574,
          -0.06763746015477728,
          -0.014404833198216496,
          -0.008445478053365221,
          0.0073096020570653664,
          0.15460309226451255,
          0.23165476913827945,
          0.3195724551640008,
          0.2716389321614654,
          0.12594289873435002,
          -0.0799977960307267,
          -0.06881581315647026,
          0.01143514945605856,
          -0.01711787723349842,
          -0.05574912906315995,
          -0.08478873806299676,
          0.00016035693084855124,
          0.021971408934857384,
          0.08005331221484135,
          0.1315941925909395,
          0.05104360501780777,
          0.1853639303594239,
          0.007211775950611858,
          0.084230853646206,
          0.17538085999325562,
          0.18645060759709606,
          -0.20210586436037611,
          0.0240774189662789,
          0.18041630241082526
        ],
        [
          0.009185151412963903,
          0.15365093596525933,
          -0.17431754366595845,
          0.04795919811056713,
          -0.28245648189481964,
          0.10091039513400593,
          -0.19255750244460756,
          0.19006022495539374,
          -0.04861816973598854,
          0.02176348918499569,
          0.007924450545652127,
          0.0525091371824093,
          -0.1723153938519978,
          0.02727621833096047,
          -0.029806842495669388,
          0.2980908066414484,
          0.01198540948999654,
          0.052909138124836774,
          -0.03472989560432165,
          0.2064946251782976,
          0.15458031375773987,
          0.06338375613577805,
          0.10346019001858743,
          -0.11334381207229675,
          -0.1233199967475246,
          0.17742634027776874,
          -0.14611973583641097,
          0.04473530725607247,
          -0.21905618523234202,
          -0.10520827871191975,
          0.07347030768026276,
          0.0006889796440112722,
          -0.15127108527675662,
          0.14233927839443553,
          -0.03252624295549511,
          -0.3193444897664327,
          -0.10469937968569468,
          -0.05445002638519683,
          0.007308073986427596,
          0.022871026975457558,
          0.16511814886415574,
          0.010141887448862354,
          0.06584379882361284,
          0.16406083282310036,
          0.2572478625161298,
          -0.06959806776718858,
          0.1856565991809726,
          -0.1695866565467402
        ],
        [
          0.1262823584348635,
          0.07116794340766137,
          -0.10437701518551734,
          -0.057594443506787885,
          -0.053859426042851606,
          0.1662777656692047,
          0.03015271799554125,
          0.06824783258263017,
          -0.01679550889388784,
          0.016686256567202743,
          -0.15785319765798508,
          0.007981819283726222,
          -0.10159640020919455,
          -0.09533064917538368,
          0.06873626282151378,
          -0.007219849193685717,
          -0.15378259088622628,
          0.14241569622329334,
          -0.006198392783160789,
          0.06401295887833514,
          -0.09820726186740263,
          -0.0421853769115538,
          -0.048964797467751155,
          0.13214017567908673,
          -0.16149575779357891,
          0.1267064960899292,
          -0.0700809122523167,
          0.15092254107420244,
          -0.1253670083943798,
          -0.251535095056099,
          0.12102197392142264,
          -0.040365071246272116,
          0.06068106363663479,
          0.12638937638808964,
          -0.24803686656802904,
          -0.10385957277479711,
          -0.012680320674717131,
          0.039073345899717615,
          0.1273065187339259,
          0.0844762767160176,
          0.02139530347140457,
          0.16083395113624405,
          0.07892404690469747,
          0.004641548283598793,
          0.029321072467249507,
